0.008595850290582999
-0.03084343817027573
-0.015807028874524644
-0.008769594671599028
0.019779288028563206
0.06257401489839183
-0.0781865183697382
0.062565903527598
-0.10867144095266627
-0.06119202012435681
0.07837385765070004
-0.010461962393646461
-0.0018085121001468769
-0.18663724294099385
-0.010606326730374017
-0.012971837757245473
-0.0004543913658205792
0.005848162516326432
0.016916678949992325
-0.015559326146247913
0.23408497195891262
0.02380730679286581
0.007967020151995975
0.023525873631059895
0.006273682544709624
0.06018338949295453
0.02008726043924652
0.025838485653037573
-0.025889292964763687
0.13859062446919093
0.0556257134179463
-0.008143356076646197
-0.04421091884373231
-0.06507287553727913
-0.023483327726268724
-0.03749936592051285
-0.07252833530413455
0.10251728369417841
0.006119351017319106
-0.03528508957191122
-0.08971963860694253
-0.063764863154709
-0.01700745508538249
-0.004488744167267222
-0.033199712260544245
-0.006565383162665219
-0.003179945570079705
0.025598201769580907
0.18664541329420387
-0.0018526489729663
0.12664903589757964
-0.038521250117235555
0.034731324904113306
0.1042731719880089
0.0904387955112859
0.057024869530073026
-0.0279795324209461
0.018595998718973564
0.016864938598511896
-0.056489662143935054
-0.0006724058848177918
-0.03123852477862068
0.04648542887085897
-0.01740062641676817
0.016579549523380446
0.07592642494273039
0.04474078865359934
-0.002211196221211302
-0.1134625141499185
0.04201993408879605
0.15534528325196648
0.01700810147278922
-0.018384615425898275
-0.036814122348609354
0.0937122754382612
0.047638503577585936
0.02028677261782943
-0.08402193284304525
-0.15035917746724597
-0.05678890565646584
-0.0291878013218765
0.0462107945527331
0.036605712744346555
-0.008468484807656848
0.08565404718904676
0.0357812897402981
-0.0200605554176686
0.028598908996060938
0.13159306226439757
0.0537954194064267
0.0030388800356992204
0.04764086067241048
0.017630287923782444
-0.02817576911693977
-0.02290806715320916
-0.004183938143470787
0.035473068725297735
0.04877810039080496
-0.0687010419134891
-0.012603413801488926
-0.038104052471157016
0.03578677930584942
-0.028222733072319303
0.005980192756088244
0.0428666171875302
0.08987802128687518
0.00702692676551841
-0.03533998059072351
-0.02114474563686312
-0.04602526941041678
-0.05409487485315867
0.07334292457227647
-0.006133473002221566
-0.007693956514795081
-0.0744815179263461
-0.12332673301976198
-0.06050339803285924
-0.042146150603416165
0.010867976713387989
-0.07868536342445476
-0.007801179479721936
-0.018841340907215204
-0.013356895328618291
0.003910194603214412
0.029767147144898035
-0.001076386253900706
-0.007042851569468787
-0.004400511007257375
0.009976346492072224
-0.0594949300634534
0.015899877125781534
-0.026396619993152275
0.014779217577732377
-0.0067719622469553644
-0.06247911349947765
0.049562770202586585
0.012798507545174366
0.04736775691646383
0.009468170271173264
-0.006277739691488045
-0.1600201931532755
-0.09309395959363553
-0.003570071456075145
-0.03403459655798391
0.052601666891267426
-0.11618770276731114
0.020911392607044933
0.028222632912024204
0.01171701557614368
0.02085763555849504
-0.010443489525464499
-0.03187055381186009
-0.06578296285614127
-0.023135089952095497
0.030870318862374225
-0.03209152429537069
-0.07184286108574617
0.004168821036352973
-0.09038858716486062
-0.06194695332710095
-0.06850065538955726
-0.03365966256071744
0.13675767444839113
-0.03794531186182299
-0.07153881348076324
-0.27147502328404655
0.05682573587549311
-0.004255077974036625
-0.013115572327512162
-0.02092889415237707
-0.0003231774371966938
0.07023281390439394
-0.010143190407351784
-0.03829702306537255
0.008787446787198264
-0.0016712225683388584
-0.014009248716921711
-0.02089738422485588
0.02127215396803674
-0.15580084027536648
-0.01134901369023335
-0.021321331432655518
0.01067859150318126
0.0002761367887601479
-0.012905011426030429
0.0239788873976136
-0.11789772426339178
-0.05633239496370806
0.015874920955205707
0.015263742360166007
-0.012270357452781143
-0.010906144542660296
-0.053421363548592685
-0.020147489763686105
-0.02705362722768402
0.07789883099115191
0.023026782460577756
-0.058621792159090504
-0.08756039971909156
-0.07326128413855963
-0.09547576321947893
-0.01178620963616099
0.0022135452722355144
0.01792502131954565
0.05245807925718008
0.048776252723539026
-0.7975376714385585
-0.03973664182589292
-0.05399871912650443
-0.0020959957918479802
-0.03522309784803261
-0.06053699338832471
0.08543904373287475
0.03429375869708557
0.020152007608044933
-0.004547909159929194
0.007096017104923867
-0.019635307192839662
-0.003794990855670684
-0.010271707838309002
-0.22882785060435487
-0.04266226659303768
0.013071138338135451
-0.01637347244365121
0.019101255117871262
0.015617239216249872
0.07047040422062038
0.027259815753498454
0.0011152433183063536
-0.04243575188707562
0.007699656458629948
-0.023542693211996715
0.08823065764415594
0.008027435991425079
-0.037943584349812064
0.06240716252834687
0.029492121701225442
-0.02826217542593427
-0.016783564774134074
0.06120615743256149
0.04660420157744389
-0.028851581475734103
-0.06027895712630142
-0.01622286461593021
0.08473380243013723
-0.08016010437822932
0.017103258825978043
0.02726100742372096
0.23654324160047338
-0.02858826648609763
-0.007965251960078171
-0.013760526520400343
-0.011043989709906742
-0.058897264049761276
-0.007961483686436866
-0.01916405877695811
-0.06794448217121006
0.0654001189786881
-0.00964455892806551
0.05994817521648801
0.026838572293817642
0.04375395407230577
-0.03556455463284177
0.07060725802723088
0.04023010101390699
-0.03937748771970089
0.001467569334157542
0.042611765463383106
-0.03406626462215392
0.005507051153104254
0.010529164058737103
0.018242575724535786
0.012226003877648904
-0.024614876923477566
0.04592472139490288
-0.043963740899307276
0.45444275451099053
0.007043175433196966
-0.027490136496026694
0.0703747648159749
-0.01088734979347643
0.015078453210865567
-0.06767603424053982
0.0863161564318579
0.04219151385744538
0.0294234293460536
-0.17874178035582747
-0.007144633066155976
-0.004883734415740146
-0.0038169013938604427
0.18072927030694383
-0.004441088769847516
-0.15927040934836267
0.04638725817148025
0.03126267469997893
0.02967802575574606
0.06075899981298887
-0.03140998060429933
0.04864637376493541
0.01305408991560528
0.08953852077487064
-0.0331065029247317
-0.19564425460970272
0.15927284587533252
-0.0161584355309532
0.022133631653852195
-0.2228188041150932
0.06966401949762743
0.001116305367387582
0.002560377269340977
-0.0024359716148907636
-0.01084237300118112
-0.000774170566674182
0.04319020866192692
0.04443679670898406
-0.02111762349252721
0.12345272033984761
-0.026372375033436268
-0.0004826393670046633
0.007951687876941838
0.15877404500069556
0.024769629430911974
0.03851674225831363
-0.00218437547552202
-0.0370879451475465
-0.07574212017075825
-0.024265787925217695
-0.03656659633242913
-0.057061636749728584
-0.02074973577424889
0.01819494204304996
-0.009093180354338657
0.028285851818731576
-0.023908070668345105
0.03812149215219939
-0.018212405265636205
-0.015154186337099208
-0.039304615725911665
-0.014279804430901781
0.06444266748563625
0.05324128821966334
0.03048598825020196
-0.03249377253132658
0.17088557230498064
-9.28904881652822e-05
-0.001934516161779434
-0.06375692693309369
0.11637875394553118
-0.008571199857718858
0.001215686861833072
0.1474056151718057
0.10227474052384397
-0.014048849647531983
-0.0025553822856163094
-0.06267855373771294
-0.0059499965047671325
-0.10873130624082361
-0.19957276920051734
-0.0218271939041033
-0.19690228677645616
-0.14240382639170862
-0.033022366182530634
0.028478855499166837
0.0007844901620312566
0.016884968852538675
-0.019784691275711173
-0.018801417407570385
-0.004716652376334447
0.003588110780806365
-0.012962275035749777
-0.03829103317416961
-0.051634762875772934
0.05267181295548645
8.941290147807637e-05
-0.01841969934911658
-0.007063163760878077
-0.010398489146484727
-0.1471022714057521
-0.023913009341566826
0.008999835868274256
0.06985567723966311
0.0724698020353909
0.011205056418034277
-0.030558344315335682
0.013617285649842223
-0.016237132496293733
-0.03814678290199563
0.05242936167990792
-0.10167034889329918
0.028966957972217693
0.037046661378280096
0.018425852413237957
0.00695931556595083
-0.014485863114183841
0.01547526848929742
-0.20452813030405506
0.08557490889589678
0.0880439430666357
-0.08301772862271084
0.020673842193478006
-0.09157858148238757
-0.012798022242794247
0.0017937998984742906
0.004269366660304565
-0.004065781723145161
0.02177121132964485
-0.003186782874950148
-0.011998210789022926
-0.1008342623313795
0.04156743940038822
-0.004131700953732985
-0.042610096659694806
-0.01442438491612508
0.024591583280764287
0.029751266624355954
-0.3804047816333104
0.028845384089876278
-0.02651027902193551
-0.004333872822107226
-0.035455525473128954
0.02269108513455322
-0.01227984209088348
0.0980131558995733
-0.03083071069482759
0.021885327803416923
0.0464663989740261
0.22116278866542324
0.09828003221002667
0.002318041921054192
0.0016247205896073081
0.001435508386806201
0.06268185249385119
0.06389694818206103
-0.026278463157238693
-0.022475001093335258
0.030042925465959908
-0.02993918302685343
0.1421448269319
-0.13969375779184492
0.027100998828626346
-0.006802231840166644
-0.01961265033338821
-0.01963020384546989
0.20904073479882598
-0.010706856614516634
-0.01365190643010022
0.0016690368034414226
0.021429904878790613
-0.031483350736621105
0.13738856539901495
0.025766520051026066
0.13556134691831379
0.0038883090719172707
0.0022297004973865094
-0.05474013220406194
-0.024452526600242133
0.003406673112719242
0.04823033788463522
0.02056266984799727
-0.02277910960035514
0.3556304646464362
0.026979634577977998
0.03294484659079335
-0.091271828546611
-0.004096520260580883
-0.004664603631583883
0.02115441369933807
-0.006307507046829015
0.07065979270205325
-0.012970511248077856
-0.015227375781498565
-0.006349256215575248
-0.038098187441750815
-0.013361042614653665
-0.059588262668406514
-0.02093790611318279
-0.004885048671100607
-0.03478018157624599
0.011015851520970564
0.021769154982806106
-0.03585668634960162
0.066390512345246
-0.018846829063879
-0.016187432944378473
-0.027655650471662997
0.024199889431774105
-0.03384797757785825
0.06448598665234702
0.0478564233503078
-0.005728695685073456
0.008967698229832212
-0.21279263368621082
0.01837030573997699
-0.0426332983970257
0.0339160563340319
0.03502547670018381
-0.002794611898392839
-0.08499412524019935
-0.006599376329509973
-0.030099990505537407
-0.0163993089898147
-0.024521789139965056
-0.052571706822572346
-0.0039256082665954485
0.0010118753293833305
0.24009713481021894
-0.009572451231095147
-0.0373303933223443
0.03778556033406907
-0.03532817828659472
0.04560508788521022
0.0010279975125705432
0.014013681001281014
0.019123271405355694
-0.006737903963518636
0.03420875627387058
-0.00018364576266332604
0.020132194161289613
-0.011367009488000904
-0.001525603420564297
0.00043748178637303264
0.01081658715476735
-0.00014978132222899585
0.035710100455055786
-0.0004987161118141499
0.000341516550390743
0.03193021634097518
0.007644780351633343
-0.036783048873733966
0.011381001526233451
0.06533679688428275
0.1185429899998958
0.07578749567765489
-0.014534916938281897
-0.08205771297298185
0.012507938904291081
0.010908451313019577
-0.039245905881510466
0.012192281041256968
-0.20793278594662398
0.03572531816581176
0.002699083021700801
0.027838925783875337
0.04977555217255271
-0.007700726238351555
0.028001419776640907
-0.01718853660875027
-0.012714839815929472
-0.06065582854258805
-0.014791904932911507
-0.019955741760988622
0.00024746472908191065
0.0048760443982174525
0.02247826298847075
0.07414041016321862
-0.014720223750411262
0.009399902967442671
0.001428533238560508
-0.0043870931346640584
0.013688287036526938
-0.028833574781861143
0.0056942228891785455
-0.052300803995619205
-0.0026574255499519873
-0.009306463270223624
0.018435480133101513
0.05672948331474004
0.015133442593764887
0.015123036076639809
-0.03596835927946456
-0.02275334847609023
0.07279036653514236
-0.055767401682762494
-0.07846697864028082
-0.2881926098880229
-0.016418623297810263
-0.007554957236975186
-0.024122314156066756
0.11469216035676807
0.0120309226659656
0.03242659661731413
-0.061674392689777896
0.014299232651903613
0.02213011424887958
-0.002774809362964451
-0.02278130367217057
0.013724773084939693
-0.008856965260199263
-0.013527873691246858
-0.010058087432371847
-0.15097097631607367
0.005181784622194535
0.006994047157139786
0.07183871210027258
-0.09359490511384846
-0.02486742751009399
0.02954898164290474
-0.05539987792188528
-0.0797863658672174
-0.01966013661708619
-0.014407569286567449
0.02446136488506938
0.03183114757085363
-0.008700056592100543
-0.05300254860024902
0.032432988973211375
-0.013355001685535503
-0.06133339868482257
0.002197479989428616
-0.043315567509846525
-0.07549800975778063
0.08411036224952144
0.08209659017350951
-0.003954891560563398
-0.0610421463286498
-0.06609033516434201
0.011558553691612076
-0.04948193535354008
0.006865058208859403
-0.01858055722848344
0.0232662696185916
-0.05181617533886765
-0.045004491502904365
0.006132799465962505
0.06884964901644706
0.09139394014434717
-0.02995067437815382
-0.04454807451378995
0.028620570228299873
0.10331007685027079
-0.008731803300702395
-0.029073644032475896
-0.020075273371356457
-0.11791230990398316
-0.038866453700867915
0.052389027034615065
-0.021911406155312677
0.011192566200130644
0.021802262555937018
-0.036293791877321006
0.0005568942540320083
0.0037783924016804027
0.028506834734992124
-0.20169651433846594
-0.03801683414442451
-0.01635435637642886
-0.04805158130674357
-0.03091513509854702
-0.31655820051207095
-0.04950574283728106
-0.06512628054234627
-0.006801717190443547
-0.30530702936543685
-0.05671347799225109
-0.19640848532215005
-0.1890420565088108
-0.045013791187063355
-0.022155891051772368
-0.04927767171358322
0.001964941707023878
-0.01225557973454033
0.02669813202337065
-0.06743709726223435
-0.5636063333881495
0.03351943096681445
0.02265194147147743
0.0991557122590582
-0.005110343319550681
0.06449430435768684
0.0023059044954205025
-0.008955437344419254
0.049938450440803854
0.008636050769827139
0.02563437281855044
-0.1263755324822946
0.008543822765056686
0.01711504659333604
-0.007683175710355555
0.014422442352552257
0.005322181781117783
-0.009734899819338479
0.02169796032079625
0.04322678032416033
-0.043235324905391594
0.005662739786095955
-0.003895131682851687
-0.007814450575150263
0.08816898917504423
-0.025888089144969494
-0.02188561659108508
-0.028273709932121242
0.0001467309090672795
0.054160425816289486
-0.09646819087521263
0.09418768624547537
0.0002719855565140431
-0.0553576822873427
0.1579898887490776
-0.0022015877740279633
-0.037063207776529876
-0.015502581167028566
-0.0057092297330107325
0.06173422251268449
-0.01843583669602803
0.004971924855068619
-0.08849460765158974
-0.035198426605094
0.0035261794994045923
0.015055388897373203
-0.027439878207915366
0.0003250106641768067
0.09325321108318493
0.015079683444999237
0.07756174585059716
-0.12570222402807898
-0.012591322220392224
0.0010261929054334873
0.04521767291090051
-0.048674221044474504
-0.025536018211313075
-0.02342384857580204
-0.0051886414501990455
-0.09668798869305958
0.0047735689098281995
0.00040121038886041527
0.02555575209474896
-0.05047032071881859
-0.014113105342555582
-0.056251687791191225
0.0879484191789274
0.047550932638456445
-0.040738258011031585
-0.010721708614863865
-0.0015310637555658129
0.016124202680606638
-0.008119171716634132
-0.055696160558815364
-0.025283257991330785
-0.023604273491163258
-0.024694736189257063
-0.055653015780441614
-0.02574811437068087
0.016058636839455912
0.001658347256636829
0.010491254171162532
-0.021686991306818577
0.07250325592494282
-0.06227476255002232
0.059253814755684815
0.06318511807004167
-0.21138401863007103
-0.1593875112233343
-0.027882955935711672
-0.007293758568773284
-0.017307573187461723
-0.01148391056047575
-0.004644815359841407
-0.021910526060018684
0.00882704133825001
-0.03309611746474006
0.01436597597463789
0.0006880231516163958
0.045226509861525
-0.0009939810254869896
-0.2157994099545087
0.18036411323569432
-0.09277759413063548
-0.017366538337592705
-0.051913453698544915
0.053747353460924116
0.055074123704663865
0.1458722863175585
-0.026165377246440715
0.011704257453833982
-0.0028336023070891655
0.005018203184574865
0.03395461069208321
0.09107291619067263
0.12694554592674953
0.02662889019665977
0.010027989575325042
-0.0039392146067329355
0.015833957387242446
0.009180658512652064
-0.025203564617011166
-0.011128523697746466
-0.04280572479591255
0.06056344416340809
-0.14293357419460784
0.12700232180593876
0.10760664552534555
0.06393103429083441
0.029414070229100395
0.03508586436163324
0.020139117534210535
0.23776723324833743
-0.08672391184980859
-0.09598506995406249
-0.02600598938642739
-0.008268311790780386
0.04546297432657367
0.0925106674395057
-0.03012759741854723
-0.06735869326781259
-0.002604599735030068
-0.06364313748395975
-0.08548821736763632
0.14313200601045112
-0.04353090613974206
0.015171848939455482
0.05704967312506911
0.002230535927828643
0.04301240074517856
-0.08993610062928749
-0.007065142475348075
-0.13084590506067337
0.19066550453572695
0.00728941201479427
-0.09694466126352896
-0.01811311342614106
0.01947818207734091
-0.27222450058301967
0.016750031006210624
0.036814183923994936
-0.02974106241332433
-0.004861290983946912
0.051878609802250696
-0.04434028567967078
-0.30403720122940303
0.008177021698746177
-0.0006229819451830078
-0.10418574338435008
0.08279239835915982
-0.10812051392398618
-0.012216846771988176
0.010150166306561653
0.014379004033336152
-0.004471670697056387
0.047873185024219875
-0.08464780041155524
-0.03012148245794359
-0.04513061787162555
-0.010816911020146973
-0.06627939157123275
0.013977668861923063
0.008809297232301595
-0.014872348844722683
-0.07418895900253968
-0.0036470408274054864
0.14858715411729986
0.27149755609919396
0.03463418846529563
-0.027978449409604457
0.019309135100905834
0.02415029696346871
-0.06792968237320687
-0.17965099727684733
-0.023815067722985382
0.053482345709473945
-0.18952594116551572
0.03622610955952838
-0.014449402431127386
0.030631195796120565
-0.02077570501261571
-0.11801952432756538
-0.030147729539155423
-0.18984209462010335
-0.013855577343336473
0.04208015648796051
0.005463685940472157
-0.009563201641040426
-0.2603344695285268
0.026992404156175952
-0.017977389500831997
0.03907789643833639
0.022031470869431195
-1.2540092244430912
-0.22509015491600767
-0.008366919775176186
0.0006276948967914646
0.026614489364763474
0.0312172807707578
0.0584610369153396
-0.004579999871092325
-0.004103376132340739
-0.006937484680349014
0.0023464108768508317
-0.035169060989837575
-0.04450249344481767
-0.02232297572322772
-0.012737691298588046
-0.1395221886074578
-0.04571464189001825
0.027303026696845617
0.006203421398231271
-0.01652631948482565
-0.020474123876012496
-0.006545048787983553
0.0725642699151689
0.04383855902656062
-0.04476846449014784
0.011486451377668972
0.016271577026377278
0.13458877592434998
-0.047716796974170375
0.010114847626107353
-0.011322834743428012
0.05990461847749846
0.03895561987573496
0.0131396526082066
-0.06427689009429534
-0.09365394708655535
-0.07788870294207022
-0.08558544038764263
0.046281949698522666
0.0022027008120140763
-0.006455758826634954
-0.038396021946834405
0.04515888913993166
-0.05739157939467524
0.027438082251683836
0.14606873432505607
0.13130834627671417
-0.014496504761797006
0.0025398173088519932
-0.06381080193123112
0.0555046758605041
-0.04530180885138038
0.006527931354858009
0.008266425187508794
0.031225134322067364
0.011155427049085365
-0.08782907239465387
0.014875323382263463
-0.0005980663811634278
0.06907611461905135
0.025638676908481445
-0.024509416538932745
-0.008505612478389027
-0.0032863029125702733
-0.026223657418804877
0.013234671983797276
-0.004615226025928407
0.05805356724098805
-0.027130321440504895
0.0011574735237488546
-0.056500789204787544
-0.031090041330749454
0.051114072864813995
-0.041638643679149816
-0.00023795773537183093
0.00190677083037223
-0.02584672021423136
-0.05137842193846726
0.01119266884777077
-0.04862542839260779
0.042890000672745
0.025753357238192682
0.012959449551675526
-0.002252102228964188
0.02833193438423137
-0.03840153194497516
-0.013998718588221453
-0.021149365641792272
0.04942619944554453
0.011252243960285837
0.015497031568674722
0.09024864150269314
-0.01836000680240764
-0.00015265288397707755
-0.023499634790950383
-0.02799553347370713
-0.048250805164981356
-0.02017278407589489
0.03830104163789535
-0.00793511113865191
-0.02465088920096865
0.09040529408923234
0.014833861342047375
-0.011679689248840691
0.03481371503639551
0.08836863783625226
0.009033021091960301
-0.012099966118512082
-0.040925237627780345
-0.05471047346940269
0.027053868645590402
0.027902751798215965
0.006218659424305491
-0.022078348995185595
0.00010235872974353601
-0.013955800358341361
0.009973920193529839
-0.01827629953587367
-0.01213722920005233
-0.04860381969238149
0.014848305382731958
0.04351453151057309
-0.061087710372894635
-0.10521729107971783
0.1357058941782397
0.020007370146517822
-0.004983674129935123
0.07843330690970779
0.08551952447794209
0.017402620601856513
-0.000512458368943371
-0.011048595586930108
-0.2976151953478324
0.05850897022548597
0.049643955074982114
0.01507414637317753
-0.052773295482425486
-0.1245907017800681
0.043045595124288204
-0.07157161580031741
0.007930600701617382
-0.08250864011243907
0.11326374199706203
0.0884066426959185
0.01971831501267581
-0.02027185071518634
0.020998740966019582
-0.13331415826336834
-0.01144080100357206
-0.037758969334538026
0.03528635242429717
0.012974409754381702
-0.3906810789237037
-0.004703579084041203
0.14552319808148498
0.044258804638748296
-0.11398326950511174
-0.017472060423154852
0.014490100519348579
0.03116278757299247
0.047439441693594354
0.05950879657131709
-0.027487594813921178
0.003753985056713031
0.06215760077982888
-0.020877065844617865
-0.07167321150405248
0.00979463297922506
0.005712848360027138
0.03369022324564382
0.07598927420669628
0.002864859100471182
-0.04062110764357224
0.0027065032983240016
-0.037550777718464295
0.004687795213946502
-0.1875554791692318
0.06424288113635394
-0.07405311379167048
-0.03981789648326025
-0.2948052005481268
0.03669382405732693
0.02448121491957718
-0.062371287293271724
0.009461550172149159
-0.04837834431984185
0.029210814230767147
0.006909856119113982
0.02898798570797516
0.007914049345034393
0.029762826006405937
-0.012563271056937449
0.07092933732095762
0.02523847269492609
0.004122048856025446
0.009379345605268307
0.06421819743104226
-0.016013869482660734
-0.026093648578748165
0.0019488522637123998
-0.013418043223469584
-0.20104967290277093
-0.010294590027977378
-0.014065077449615673
0.0012557142112234337
-0.005315018652532334
0.01896990166797207
0.026219330058117513
-0.01166865461902091
-0.0029393654131968697
0.0003214351326503175
-0.03355548490391212
-0.019575413492126208
0.29204988360845685
0.009755086807799912
-0.08280920746783094
0.07187322833602057
0.056911281722563996
-0.20275688999668284
0.09327045393177924
-0.011473358166929829
0.033425061445440815
0.012567936571504009
-0.12340388161190483
0.15500240723247913
0.028957601362901837
0.049909665392441724
-0.053078315869487955
-0.03263746186618229
0.15203507924770407
-0.019782876153198382
0.019461266474767355
0.24989432606309872
-0.22119349704271937
0.03633397213691058
-0.17022880372432703
0.12849056042731088
-0.06314966396848515
0.012817212009502504
-0.0509245748025309
-0.2620716269628816
-0.025719628358773224
0.0887962569308344
-0.05976909143498852
-0.026212486784690518
0.06992959468370338
-0.03169992786507529
-0.019689709703246606
0.14413569150177752
-0.025972144238910172
-0.118635883085555
-0.036766218549420894
0.15435730061464836
0.006610152096886612
-0.01918730403618469
0.10633682339106425
0.11417934532397318
-0.0669433135784321
0.006771931215687602
-0.1253929546925654
-0.0564721808494937
0.012926788987155081
-0.013361467735273632
-0.041425433824856375
0.1107995167893813
0.002104299401691343
0.03538314993778339
-0.027389760866975928
0.07752483035390638
-0.02513454732784165
0.19923353727876603
0.12340582019859314
-0.008188821784489812
-0.009615106701049165
-0.03310767815464776
-0.11328999131150075
-0.03098865589079848
-0.0009734635171324751
0.03454604697816158
-0.0023086700904877875
0.08071845848536288
0.02100714410494163
-0.013006535693650475
0.09958807603163385
-0.010709012236516113
0.009429741580715037
0.014129695632859991
0.04274762051331137
-0.07649356496225805
-0.004687758526463221
0.01434216645062843
-0.0012693767492383907
-0.14895747521456915
0.08655987863514779
0.06295635123447185
0.1983998664664802
-0.06632117790076109
0.052160621233656494
-0.09571014893161768
0.07452633091661984
-0.0343153341221498
0.044666572801582004
-0.08751259624758317
-0.03763980756505747
-0.0027230036136702464
-0.007342276330507205
-0.042068422099379374
0.05507447662753887
0.10108844149928228
-0.006298830709986869
-0.01222212978625413
0.01247693531413466
-0.07002838505472009
0.1925342394317113
-0.032485065228545516
0.06314380782904036
-0.030260854827650684
0.020386653362575387
-0.03838082282228748
0.29309198835560074
-0.0438037791804332
-0.032149829520339214
0.010763321261716245
-0.003421562174326969
0.0031680512385758174
-0.0027310900054549558
0.010588096804332151
0.02230064526214467
0.051502954204334
0.16102200987645746
0.03724099710740049
0.08499897342012451
-0.005440757374016373
0.034785638374091266
-0.06123872800197868
0.06975969507847081
-0.021087051231456353
-0.0536030588508523
-0.03842206357305056
-0.022594299798235663
-0.015937182619256002
-0.08594512559836363
0.008185228655680712
-0.04376903363199872
0.13012215082395534
0.00856641643658078
-0.0023425414408013473
0.009047246488012447
0.025731202168739257
-0.1661754236805369
-0.03896495219869799
0.07677844263940663
0.16656823220525935
-0.051717899690366165
-0.10538902335714173
-0.19688880924268048
-0.32331425139168063
0.0916401446998863
0.05428901304136312
-0.30303830096886797
-0.005944696428859723
-0.10740134007949466
-0.44389520048968056
-0.019598105888502443
-0.06504272537669137
0.03407937539733191
-0.03172121993576227
-0.09040341543128844
0.0440681816030592
0.589925783963423
-0.012445292792319968
0.1061535272615737
-0.003121681531062936
0.0853915115782924
0.03117953057158714
-0.02401503461778804
0.01571022924161101
0.01288485368280263
-0.03326349093192334
0.05106409558806148
0.003766371709610849
0.12442281778830026
-0.03582306599873764
-0.015477509539197376
0.0016833386730375336
0.03178397084102332
0.07920917831131759
0.0006792619824605511
0.02322388803192474
-0.04233534875657473
-0.06584153037123826
0.15719194345170756
0.027207435435833774
-0.007534857111782345
-0.08652182541044837
0.02672466347600499
-0.04576256438941234
0.07986194893447114
0.08666460617639937
-0.044205960880109016
-0.02961922313107997
-0.018357854691712878
-0.010758931692706615
0.015150563875138693
-0.01697544025328994
0.009209154140313648
0.020290227025861373
0.01412453185745224
0.0874538083327896
0.023230187762923325
0.09021453887280362
0.12991723807957833
-0.12288647557706545
0.09913098085000703
-0.014244648441507007
0.13067849671140658
-0.008231594651443698
0.03643267824368686
-0.015540725014732491
0.024630746750412404
-0.006428995121906542
0.02392986343524634
-0.032018238508476904
0.0009202330314483062
-0.00968150721967668
-0.035943615725322176
-0.0026729143730156255
-0.06515454273952102
-0.01360456574393203
-0.004151590378375654
0.0021659846413628796
0.05980862277699679
-0.00822321239885307
0.3302069103742894
0.05731398496261013
0.0287819257046826
0.002725528817582109
0.009664847632595754
-0.04181938850246066
-0.013647390561289177
0.0046298313665572395
0.011049888503320969
-0.03126329108733784
0.008840679480541474
0.06244988055999743
-0.0087189932017313
-0.03305824439309599
-0.008497130453887062
-0.008967677192803057
0.03484436963504215
-0.016322612389842818
-0.052235323977180996
-0.008068968638753003
0.026301148323368405
0.013571336182328603
0.030537061884341028
0.02571941687777064
0.0025588387267328613
0.013558694972667837
-0.024643320283064533
0.029371526925479046
-0.016220550710860655
0.019378064485567774
-0.03444167263138187
0.04441391968449375
-0.020578756429846
-0.04005719723210388
0.07625875687049584
-0.02705083097111212
-0.05687755618509037
0.16272051115195704
0.08190302111875113
-0.009513192579029146
-0.025107731957532846
-0.053417078133029726
-0.06842700308655182
0.04328648924741047
-0.014108458364249501
-0.030745432462622527
0.08082557271487997
0.008203843858166148
0.007170247899937347
0.24085101718797694
0.013496198946814721
0.06034592361944836
0.09712576350004676
0.002046619666875349
-0.03105364906901298
-0.05054931455720514
-0.020020815577550036
-0.007498464404321179
0.014174753065627665
-0.037812349951660364
-0.006367087314907045
-0.06864823256810673
-0.3308642493967603
0.004815789628927223
-0.017041650436801007
-0.06991686800180578
-0.10645174547894841
-0.06564694464315689
0.003937366303319734
-0.03448257685236117
0.0020103605697076197
-0.04320789759634283
-0.01025251158745151
-0.06143060232735121
-0.028006965283496735
-0.1393055236548251
-0.0606164921461245
-0.0438669274455864
-0.051533225518528514
-0.03890292550633166
0.025222158039104846
-0.1385857881405203
-0.022496054776966833
-0.012605994929101529
-0.02133582753324683
-0.13491279091415084
0.015116409095815525
-0.04825746927744328
-0.013777580149730878
-0.2797872269234257
-0.009660711039517586
-0.03338150634580191
0.024780275832512515
-0.035919849006706896
-0.018083868193183764
-0.02273133184378982
-0.083890849188654
-0.006747904890480644
-0.029099408946281838
-0.02794789593614262
-0.002237888891820068
-0.06290999451523312
-0.21439506401241626
-0.009020618168922252
-0.2143705636650327
0.01483477391700386
-0.04801016206437375
-0.05038883875521173
-0.030362385536908516
-0.0031092256196895633
-0.015309321193554664
-0.10649555314833582
-0.009015036003842741
-0.08377496830850036
0.03935260039365076
-0.07651818920606444
0.07387398637780114
-0.0621357462239631
-0.014751127179571766
-0.04081802457628517
0.020466718022284745
0.019228138215469644
-0.16353933567469223
-0.3183085151410829
-0.039163658058162944
0.007090860426655447
-0.03689944633467356
-0.005117871785364141
-0.042062329112735684
0.0012065179805419402
0.01502712473312924
0.041584974289824765
-0.5759089261608559
-0.002150635413323769
0.04655175020796804
0.022994018722651645
0.003987528615046358
-0.006099940817481127
0.038640992410129145
0.03591425833440065
0.021643137931090222
-0.04647704834213448
-0.006904358302510852
-0.05893333334226334
-0.035892590101652695
-0.08107361844191671
-0.05338902773480386
-0.05324718677934364
0.02300162862810987
0.05714100508614223
-0.06655324052226194
0.11515430747522018
0.04077116586475146
-0.00033341007617339297
-0.054639847984340996
0.053997183043563345
0.0423871525722995
-0.025737584845158985
-0.08481500296574909
-0.01304524437393384
-0.054992969250960255
0.043785524332949556
0.015586923187642569
0.0034309165977120405
0.03814829925474475
0.028647398585017532
-0.026252935662988686
0.08909963067251801
-0.36586874872163205
0.0548040291054618
-0.06843005391450496
-0.004339032052081091
-0.038564461740099656
-0.024774116757056895
0.028786266432223966
-0.013328829106216826
-0.026430200049205224
0.06470539728121422
0.02316987386523617
0.33652113470275
0.05002884678194799
0.06903735979139218
-0.08734469327394022
0.009738361476239405
-0.024355240392980298
0.006376668939628324
-0.02111168371541331
-0.25205984956673005
-0.4156323033208925
-0.19228277746262634
0.14204081926008605
-0.021822161430967414
-0.07804262692140183
-0.15450761077520248
-0.006259691793228912
-0.04617107117631006
0.006987761719474635
-0.015862835985691087
0.13291404287319716
-0.023660205007378515
0.02476935423063275
-0.026525722442021556
0.058158406902237704
0.06922305972418356
0.1370882577247331
0.04060129183407746
-0.011657144091765196
-0.002831608442577355
-0.021995330328580972
-0.0031149387221994615
-0.10029441733231124
-0.024043550424861664
-0.043609279589273714
0.04886678103026502
0.066366939171345
-0.06435808186514226
0.013440929583820094
-0.07870794220754015
0.09091559491718001
0.04166649910750078
0.2178946656594347
-0.017472321446648703
0.08808917855188511
0.10371910301897135
0.047540807409837654
-0.009101474221369943
0.05895396442589918
0.12474268543414226
0.04239984369728936
-0.6368416783335884
-0.02140673976141566
0.11910814009828213
0.23590030593885378
0.0724874806445294
0.09625205971366375
-0.007989750569302952
0.01858990923159217
-0.008128039112208137
0.0540181511820755
-0.018146813356932936
0.04067279939216578
-0.04890354940128765
-0.006327820168856153
0.06269114527102679
0.05818472498568805
0.012206684975700793
0.05247782658841763
0.0810275498379148
0.11324174210766819
-0.015687216986988526
0.0148775013081471
-0.02788111104785946
-0.020198901850468784
0.04434658560587328
-0.009202499643979458
0.14153985251148885
0.011118572305192552
0.06785645599828573
0.1233714190660223
-0.07555184521099699
-0.024620009824672225
0.0005187244221420609
-0.007795743719120628
0.04093543985151848
-0.03248840500456781
0.021400244560372914
0.18715339139563306
0.013009654601788196
0.0028259874615057497
-0.16516655869956998
-0.04844534446042844
-0.009810589373668445
-0.2178715105016189
-0.05962712367344177
-0.0025740974722798667
0.007685197645975295
0.04614972110355544
-0.03959933495448902
-0.09674085711672742
0.007355697897045814
0.04383305640751953
-0.016427126175159835
0.006875716470802866
0.0024074523267212304
0.011650219043189634
0.026193209627952085
0.008063607436924988
0.0975361238483212
-0.014760242626462671
0.03516028757208119
-0.02116402234017663
0.009879439881821578
-0.017622466539160424
-0.04616021119095561
0.025853875846498973
-0.002720107749590636
-0.12602623455456213
-0.008685105502888467
0.05568369550333301
0.039256388449790396
0.13002947526465433
0.09591080877205597
0.158088778362809
0.06763416309289381
0.010356106843728681
0.29917234171982704
-0.23479660517342377
-0.045939319413018445
-0.05568890402678593
-0.022651491029047396
-0.020104976748707853
-0.02208760649747165
-0.01608815480588496
-0.08051028571741121
-0.003648874926761877
0.15317003933021647
-0.07935203021445421
-0.023065341746066163
-0.0423328383181851
0.007537788873726572
0.021941417098815405
-0.36246902659427016
-0.00085082184006676
-0.020678433040245456
-0.09750953244670393
-0.016317700790440887
0.03567665127017713
0.03515478134103341
-0.0523603975243903
-0.14574455593381141
0.12432021290959143
-0.0633903537963026
-0.020341627594672316
-0.023801883982492087
-0.1675684545908789
0.0069084440759453886
-0.0027042045132834947
0.04090054839419613
-0.020418441849259148
-0.037043822189560614
0.03790622107047208
0.04598271506973526
-0.018068254862319545
0.06774362167797514
0.11903876835127175
0.06872036345969217
0.005781159772600138
-0.008526017508427138
0.1296054207230096
0.12235244961231735
-0.017595830730512504
0.004381008892072974
0.006803594891767396
0.0021571088257653468
0.0225816750288586
-0.015237696333941743
-0.009348660625293792
0.08083884425130916
-0.15705878002386361
-0.2911907581074865
0.0807717401086754
0.2665116516275838
-0.0328118939884573
-0.017520707817145147
-0.010171919954550591
0.0241405527542494
0.05064959568033057
-0.3142281920487719
0.4951402017584382
-0.034897985028630354
-0.0015739870191024984
0.005180530012467582
-0.011179830171814745
-0.006453557524776181
-0.024840354343309168
-0.026941710973611473
-0.09863548419316501
-0.03140069071293415
-0.0006185927589332207
0.1622060276772198
-0.05210009634592763
-0.09239060655169098
-0.0036816951345878413
0.027330303107617596
0.11031477338139506
0.10940854457376849
-0.022949402890101292
0.09539122162837982
0.015428484765651137
0.060421652704944324
-0.00915216979887919
0.026775402037817263
-0.01112057564953384
0.049233769616335916
0.12163899719778266
-0.009651082194216475
0.019726335277722717
-0.14867363795576277
0.07927526604612153
0.0007522149240396322
-0.03076531617440019
-0.023746613841009165
0.02691767129937859
0.04021514473089333
-0.020186314179374318
0.013799468827964002
-0.009354717391298385
0.013410782927360025
0.0217859537493716
-0.021627938494034046
0.05981983861958079
0.03427907949744548
-0.01593078678555318
0.0055366061509407125
-0.05856736701259014
-0.010880148199870165
-0.05010017412596443
0.022771452034715943
-0.017813168734018125
0.012557006313221026
0.16876134411541827
-0.10044877732827849
-0.03516318673258297
0.07541464586093911
0.1739407612967514
0.01373106666654023
0.08463156526108123
0.05670426964875825
0.0015137907325347604
-0.16003942320447365
0.07204782158930527
0.09856812221760414
-0.055304914980571857
0.019227660184502605
-0.044794895701860286
0.014817481097078918
-0.2734761635181254
0.0030051737573237925
-0.04372256228280851
-0.1919336283157777
-0.05591167988888373
-0.07245315012567392
-0.0846567479970327
0.01258587280895798
-0.014908132293974202
0.07684416163612152
-0.0012210901648194018
-0.06533030821204765
-0.015325393860477493
-0.023664387683165977
0.04196300684182536
-0.06468411608489873
0.08916657278068538
0.010925791043049691
0.0944377851211845
-0.05069724383797535
-0.016197953611422122
-0.004143907170911
-0.0353159903777956
-0.18751073770475513
-0.044650457858560026
-0.006879780420229647
0.018776414125654322
-0.03237966481274316
0.0016824358746409468
-0.010287989703931027
0.011521708057231139
-0.0006079605259729915
0.0016075673360471283
0.0047304454785676645
0.05529503571254297
-0.024955703337192433
0.0068508823420042
-0.032390397476915654
-0.24260685067826113
0.06465491613905176
0.25237537152253575
-0.09372135155376692
-0.0015181864391458958
-0.024995830817620527
0.027054802929567724
0.025442166745861413
0.013736545046051632
0.02638014539973573
0.009449808050402969
0.015537908901394538
0.13370117031146977
-0.06194231932432172
-0.05414427599084808
0.003960626055469997
0.024665759207128095
0.020652060919692874
-0.017392709340953272
0.04524086237487031
0.4047573793681355
0.020922445906705254
0.24370158692984445
-0.040994612313461784
-0.0032846225186431827
-0.011003375825412448
-0.008448035972898435
-0.107223853920353
-0.012363896774722452
-0.013098587232500455
0.02785938932013619
-0.0025826673593358235
0.06528448970274311
-0.008333506347050906
0.09760275233411908
-0.04867205903837572
-0.04678280436411072
-0.02142688215253844
-0.03595618322315647
0.013396924707339065
0.02532824334280071
-0.05409381212815603
-0.019815292601466136
-0.21719835089276912
-0.019118342041635233
-0.04848451609289885
0.019064718661440255
0.0656377409771629
-0.028662481829467616
0.036089897115414694
-0.016484234284430032
-0.04533397291898194
0.0018258634066840118
-0.05025196027734712
0.019343654285379652
0.002490697416707666
0.07290299364772518
-0.0135556334748742
0.003749190866035047
0.006731554639228298
0.033490542876782485
-0.003002010015623645
-0.03442397958403571
-0.035517742532822145
-0.03438404132575069
0.03873409247106858
-0.008752579878746006
0.02398417743517031
-0.1998458529658697
0.21219546379926685
0.25719294246014446
-0.01614574819172277
0.009577397417898606
-0.011025379629342068
0.019645188043089824
-0.014564098643197586
-0.04400961650755208
-0.038395462026319695
-0.0939227184770624
0.06185671906094524
-0.024661312367444472
0.03419892875892664
-0.02886945327175161
-0.04610552877418883
-0.030534106851469307
-0.04959418773078365
0.10014791159219365
0.00012572518796603277
7.331103965619402e-05
-0.005927311510292825
-0.1565772718548981
-0.046953151801697256
-0.15197130754643481
0.0056782262164443015
0.0531375088403006
-0.045369403958984936
0.020801310649123723
-0.05569182864363255
-0.016271006374355256
-0.019628719303011216
-0.05044527658937785
0.06764882337008146
-0.008623808464983842
0.069364054740735
0.0010878243862929697
0.08930158196123136
-0.05180109768111976
-0.0005804734961350001
-0.00781960887286739
0.1478795334938451
0.05182877974843827
-0.005945259324893064
0.025582633998395495
0.03902787680818515
0.006188882801062622
0.05761310848082585
-0.01609539332253135
0.05155745609878235
-0.0448440922123101
-0.012394703381548291
-0.05055041204149325
0.07281670722944814
-0.015195815114702815
-0.034975301946168005
0.08413097582326148
-0.001958567030347572
-0.02421510303233083
-0.04817010505935031
0.020212753843419314
-0.03410083322029441
0.05437351101400169
-0.1464859238762182
0.027603277039899152
0.11662172597551675
-0.03245879528232618
0.012510327172667183
-0.025762993746693
-0.008290330799894354
-0.0190342800430732
0.19746585559944518
-0.05645648873009438
-0.033800887451725166
-0.0652878885039056
0.032917306524081626
0.10985459613986383
0.21404814523404286
-0.0027106607211643753
-0.04787419535888754
0.0175158440674411
-0.029749053464384903
0.03539642502304011
0.016618831867830825
0.11100542444102164
0.22313688889118732
0.02587442822352081
-0.021621584404635335
-0.11449181025257102
-0.020226041719002073
-0.01373868494841129
0.028895183794634946
0.06117436498740017
0.05525099855086508
-0.25507170727425393
-0.18324710707540046
-0.002932973322285725
-0.04928113129327401
-0.0746029204907125
-0.0034381667732689258
-0.3392773957992203
0.06042482234008887
-0.009948974432375223
-0.36648939729640095
0.0070116572209372955
0.03159405036947912
-0.21373943441516696
0.041861541257814
0.011347204666058703
-0.04100796440765434
-0.02295344742525329
-0.004901051669748698
0.027064335738995988
0.009903273055123193
0.12533454147668413
-0.00557489469755642
0.02407975613758692
-0.0058664565144372505
-0.17019266040929606
-0.09788169011043
0.01589332793996851
-0.036933114499654404
-0.024146109532837166
-0.003840388436050791
-0.2108931665435141
0.0007711334439084443
0.025723267945169045
-0.006148703622616297
0.01949150572439591
-0.21932109503163544
0.0720184014967817
-0.08150803039246039
0.024956269261676614
-0.0007617320067000285
-0.001491383835716406
-0.04807032242214439
-0.07789351328689578
0.058999170622177896
0.005504186842397929
0.014860554726551473
-0.017708406254000608
-0.004427839121970861
-0.04056729303305017
0.0017696057223271792
0.019272555311853456
0.029468557957774113
-0.0042120211260899005
-0.08439325299021626
0.23857749593443803
0.05733102001883784
-0.01007082987587364
-0.03254254197326596
-0.1091053783923673
0.021963937088312544
-0.06260938664361877
0.017461453349414294
-0.0261595270855849
-0.024617057250415304
-0.025949539969944018
0.0018938435598803713
-0.003612372308820522
-0.025306890645725846
0.14855247395292462
-0.015692006463174642
-0.0393524690192438
0.012160151838155218
0.010322680031029582
-0.01787137165188141
-0.08715258474428247
-0.04139140935395224
0.013186002314985502
-0.014687117062181027
0.06902013247321033
0.013203490456746477
0.053012226569771115
0.16754970570766592
-0.1294488172819739
-0.00043327159854658376
-0.035272324059793525
-0.0007177901463332156
-0.019043727367828996
-0.06257172859364665
0.004628524134633359
0.07577442436599072
0.14553334572533666
-0.012889652942319422
-0.006066195849376075
0.13249476538680835
-0.006482308710595385
0.02846697292563186
-0.033160099482453284
0.21358322984388695
0.026044887164939082
-0.020276042648119323
0.08709684788661165
0.04667084723581543
0.024185274130131978
0.11498462689685678
-0.06321534258105042
-0.029848563866100068
-0.011842469467895274
-0.10188445784652851
0.017224525065443152
0.006910835916230744
0.02774443209636422
-0.048427837999629804
0.09115793773437753
-0.01859715323496183
0.019324134784033234
0.03132892323937224
0.009585935145383348
-0.009295021750818453
0.013166614899437403
0.03438007375432065
-0.03108963644940579
-0.07752311764156901
0.012591659202859993
0.030838580273643848
0.06643949678860861
0.014723621916264609
0.02048811027683388
0.013417167001274337
0.1889813417848253
0.008014917066762772
0.008150857592382342
-0.005236289677463965
-0.008543738776112447
0.043518257066446034
-0.01581606311663449
-0.016391289385470485
-0.028451906757737216
-0.04491696333702138
-0.0009573079643405257
-0.0784617322279531
-0.017938346292427403
0.0021938065040295854
-0.1359290245653386
0.04149427826973784
-0.016699521042776295
-0.0079312332419852
-0.06895400797021822
0.10401265208941397
0.30297326907493255
-0.016705861921469556
-0.02402082972402324
-0.0779418419843649
-0.4943753431674056
0.0734021642192427
0.03810150278524075
0.019772546061204727
-0.04542972323193066
-0.0021782968592522056
0.13639788052892035
-0.009866639202843192
0.028967887847447697
-0.031995755373366644
0.03693309944388527
0.007092062993195212
0.0020124309546813114
0.010189668882806658
0.07277174223073363
0.0407134061598619
-0.07339552784401736
-0.0167192161733308
-0.028205151057831213
-0.02398736864812235
0.019104671460407896
0.032455853395953596
0.0459855344335738
-0.013789123002347024
0.012535529900899126
0.0721450869942059
0.12815292359659747
0.017879836569699156
-0.006011086548319829
0.0015455195650307067
0.05400837391710682
0.004516162895404503
-0.01033575678210039
-0.03746601807874304
0.1301870706728441
-0.03557769576478776
0.022947089981775633
-0.0021255453077171542
0.02176924550111933
-0.022605918825726438
-0.012742827427230066
-0.01598757834168879
0.0022533755434803425
0.09586948963363526
0.008553716657003626
0.00619647431571351
-0.015040426840682915
0.02721774345545189
-0.028854287681205217
-0.026668995693919867
0.029998074997453408
-0.005444559931107866
0.07989948690285253
-0.006601254039181934
-0.10872650393384463
0.08294756186643508
-0.04723931522110676
0.009566349104453855
-0.011146492423037684
0.018554069970358848
-0.08627198112627409
0.011837719755644408
0.017580524593276803
0.005264979173927924
-0.012667914820021125
-0.23036841352121706
-0.16067470094285385
0.0033470306561232824
-0.016476966599501448
0.01637907864800617
-0.07541129339980417
-0.026106620876586394
-0.016973760702305066
-0.0211657286691331
-0.0033741053392729765
-0.014016901931512516
-0.010563755521909645
0.007613180323301809
-0.031997124028529784
0.0645958682796096
0.012953338365925111
-0.03980327075230922
0.049035964196773675
-0.0011985840204302345
-0.07322050481078761
-0.025535115987165208
0.002660150958173424
-0.04250807844851369
0.03828067193049638
0.0323385911191922
0.0930952814045103
0.491952893508598
-0.02067859854014572
0.010047128665884121
-0.019140120355511363
0.17181131052206042
-0.195182758052914
-0.026890658147987866
0.011930745568282447
0.001289668077844491
0.003840741730024888
-0.24868599740410566
0.04262937236775723
-0.02605970464356607
-0.007756287676190034
-0.16873859718193682
-0.024885046851465968
0.025405831528690654
-0.006236106902833577
0.027969265872572518
-0.0009089625933181941
-0.01664840849945563
-0.037923099901183144
-0.11198028997608077
0.01318475168092443
0.02410197370501414
-0.05650394685636822
-0.040068985239916755
-0.028200605214734734
-0.044755578602315035
-0.03842213915266493
-0.008310755131483001
0.01174333195444348
-0.01687026985113512
-0.012464330269843634
0.18028309502779924
-0.06695676961865565
0.047220857010373256
-0.019781607932647292
0.11610242014789342
-0.01766218296822668
0.01909407544452325
-0.007513251102754879
0.026811606227290882
-0.0920936705447478
-0.1409702349146788
-0.029571514283947272
-0.06598846289600115
0.04370050187059627
-0.06887569155686296
-0.013938787148874577
-0.0504882943718029
-0.002019279636937978
0.008281095865225827
0.0003264007433372211
0.04793896255514406
-0.17869700163144406
-0.01021416755301648
0.019882357924147838
0.09161179804273634
0.003381310971850234
0.023674561598993085
-0.07963858633047476
0.025240600451261735
0.034149398892765144
-0.005905184522458106
0.011398428780048464
-0.0543393214736014
0.19799162282682517
-0.013127322143637165
-0.008067465042824065
-0.08060392567636246
0.025562868564421328
0.008020938001255527
0.012561024458772208
0.042419555200552475
-0.04993390026710957
-0.027653644052413183
-0.02248030671112813
0.08685961777969929
0.09384342144502968
0.08566330360664244
0.01545609028801991
-0.042821412918234526
-0.0701393487600085
0.04494201553468834
-0.21952309585521276
0.02162371270649071
-0.0749919617965782
0.025430497764696414
-0.06671742569543272
-0.007786295326438889
0.081601658891673
0.058380486014566024
-0.09123607004497998
0.36399716374213476
-0.024249050131703774
0.011638660353666919
0.06556445156719748
-0.004199214983486835
-0.00040408352741892067
-0.6223806290342867
-0.10754012164792917
-0.03156749247258203
-0.09776063763519358
0.005400912717476047
-0.030001297235035515
-0.06873500790381272
-0.036319548141627175
0.08956440992915041
0.033631757432111234
0.003144985048475734
0.10347493145543696
-0.023362903690691383
-0.0054333888960316
-0.02844482959373111
0.06854131828661311
0.0783068142132366
-0.006894255020095758
0.010220627818764164
0.04260478456246578
0.1448742402020932
0.03587920533340837
0.15728942401118018
-0.08384778455208283
0.03487923702355525
-0.11187985086542451
-0.009928736715983126
0.018366542249094956
0.03804975563744834
0.0827831963440228
0.04312797530346903
-0.010718594412612905
-0.0783407400217504
-0.046331397665676614
0.0043580453375989155
-0.0412968152729303
-0.2146062473852209
-0.01104327247208179
-0.012782059397710786
-0.0466046071718783
0.005665595887753054
-0.02152083437100443
-0.0327444024772261
-0.06745465105653183
-0.21983313291315693
0.051142955130036756
-0.013980471163747815
0.05325593300220684
0.006504669679241987
0.04885709672963083
-0.09056913774140075
-0.035979378281953134
-0.1199843129635311
0.00793079532215089
-0.03206330579705297
-0.0017977052599500638
0.025819191668128107
-0.042166670230357646
0.22398550578579562
0.1486511720763373
0.057498876229982836
0.0006879761185670885
0.02608017362977812
0.02587365075932929
-0.0236196958429486
0.030408551334672407
-0.06788020603389926
-0.011479431049503695
0.03780282437878468
-0.026166053039217124
0.2217045547761376
0.017004796696248235
-0.030005255442312397
0.006033477029039289
0.05628003629377713
0.012924207845530106
0.0039936128885736
0.03614438187687876
-0.017902646935966705
-0.028127046955815072
-0.030115331855659386
-0.008544073882575736
0.0019488942405195364
0.02673551288443077
0.015831359378529895
0.015024481156235685
-0.019997375000693957
0.10926505434556191
0.07271964885271079
-0.08020586834231062
0.06961490176898727
-0.018075006955804777
0.020100661169272373
0.11347603483770398
0.06500315640723128
-0.13038413071664418
0.2639157510115487
-0.013263942975868909
0.03254682588154312
0.16536682354586932
0.007685332388997883
-0.030254228035430732
-0.03384353863328085
0.07989698499652921
-0.010691896506516288
-0.023159686793012363
-0.006607332824050734
0.05725924605011535
0.002466897885867732
0.0418789633550287
-0.07454526755878707
0.04722839167756406
0.017732640545218295
-0.05900444880466332
-0.027445762998947396
-0.015296035183660829
-0.02566837553692844
0.17672855026910728
0.3225077372143261
0.0009706718574550146
0.015146349918696487
0.05508108946496631
0.044878335105604
0.07492289445704903
0.05526745440492983
0.013086814440429069
0.07813662057317397
0.011879538768854898
-0.03454450592757729
-0.036433764040897786
-0.02662188987322805
0.03324471239191089
0.010799675796995242
0.04613392808391767
0.045528659741271855
-0.019742682702633414
-0.03504260393957648
-0.05541795909972008
-0.03637607767653548
0.06670966672069098
0.020646933030276485
0.0045424846132663295
-0.016932207069724817
0.02271033459455531
-0.00818590967995725
0.0370220940691744
0.1657435199435574
-0.0774458747030448
-0.11619492897198308
-0.10732530301330634
-0.012022380888558053
0.04188992109201965
-0.010626917327122011
0.015960515480440036
0.021976380081791952
0.0221357148436151
-0.0643411333346822
-0.023097381370073007
-0.007121090108871425
0.04060591054433234
-0.09988559371937718
0.010894131908227658
-0.01522686686470136
-0.001912512488819201
-0.023565798896243453
0.008246862449173241
-0.028803197648933583
0.017575173400688215
0.022472953384359014
-0.025228497977439424
-0.11474253513538762
-0.08702561795474571
0.002834431150916955
0.023391254267332007
-0.024628325857033676
0.09177900957871638
-0.031113601678882465
-0.050567714213117544
-0.02165021065111788
0.019833388203989912
0.06853765615539083
-0.027415633795334057
-0.014702964385649367
-0.019611846574829995
-0.013580012211478814
0.05386609088486972
-0.09988316714590732
0.0845517758866939
-0.048379321193287694
0.13640543188456067
-0.03680316605065082
0.077430696348591
-0.11400953031715898
-0.05877738563772137
0.026876629185856784
-0.012843132003451403
0.005469732270679133
-0.009061779564377623
-0.015730171158179637
-0.13402373127070089
-0.019981653426692385
0.026558854300523158
-0.1579348605525157
0.22818042395896734
0.0068447307830940786
0.3094549083187914
-0.06952623148138865
0.05949312296767041
0.043752889417509905
0.031506463281639384
-0.019849113162032934
0.031926648747850825
-0.007967706812986884
0.03885975207610253
-0.02167321390023072
0.019477557131996375
-0.010689615249079352
0.0038011854430042217
-0.014746349966100842
0.057914338413387834
0.04558322414690977
0.005887751936184914
0.0050687558785066505
-0.10225082055875767
0.015549280930178213
-0.05230640678174102
-0.07569182054853264
0.037401690338890084
-0.07142549976010708
-0.012354143457092173
0.008258048621760671
0.08567876273371842
-0.023643599446372576
-0.05594128382260081
-0.02876105990963693
0.03151694003319368
-0.003056996058176945
-0.0017244841331862726
-0.005455210786416656
-0.011879127625690631
0.008676248640472915
0.01683353326577141
0.11116203106087648
0.04245325069670716
0.010673969652920948
-0.028758914515593138
0.018187621885077235
-0.00333614488042903
-0.055547754686445745
-0.036938304292897434
0.006354126835492997
0.011106659300902343
0.08896666503055449
0.04240730450478874
-0.026452694620815672
-0.2272150489134208
-0.04660940616638812
0.05876921448464527
-0.05252286530254032
0.11902089923909424
-0.021334194830788748
-0.10350190484602859
-0.01975209060517888
-0.13567657309257664
0.019361166966423513
0.040737704679340736
0.002789508611505306
-0.00837946847587495
-0.06817548322083923
-0.012457902753260626
0.016025964230700587
-0.03187182682655833
-0.07996554297161701
-0.030236692535325623
-0.01792951066266552
0.017805404628937475
-0.03735358958616225
-0.1143340517883995
-0.0332906425545593
0.026741939329859448
-0.01547971397280208
0.07717158432429798
0.0212386293504932
0.12289718516421194
-0.0672929511877247
-0.055382523719207696
-0.06287879719404466
0.05666617946771987
0.01950528744647288
-0.02564025777871043
-0.08973586755174691
-0.025832133733336284
0.01582965690468321
-0.020413686092160058
-0.22778163016153652
0.003297381545117086
-0.05063376942202121
-0.015718894761348606
0.09416200116640583
0.06135663956777102
-0.07273781368328935
-0.025238409693038553
-0.03589543127328821
0.007781422817039691
-0.06035958973683435
-0.004045441902434177
-0.09987990500865683
-0.14183495144231226
-0.021032181359857575
-0.028289426884588603
-0.00950617241458121
0.019602247593726026
-0.2564348842422896
-0.047681103757010644
-0.15126908884650142
-0.6774015353243409
-0.02327497454987188
-0.03909935884375843
-0.13090906353728485
-0.020548477090028917
0.004326053876047188
0.03690716527835785
-0.053530650604222324
-0.14571353938168297
0.006737493602327865
0.005124842759042011
-0.011239017352827231
-0.0027091504608830765
-0.017099335966651627
-0.05293403905204159
0.08131858447148092
0.11214584631000539
0.0015834279637033162
0.016760210298396885
0.0357024092971156
-0.033284999267139306
0.018549399445780403
-0.13953426444162875
-0.007361539048779882
-0.12703458859224667
0.006707918865593616
0.0038735965970313154
0.0147570459027409
-0.047994092277227576
0.057009093093999756
0.013778911799081956
0.005693960142134451
0.05286612971045241
0.05321712100380226
-0.03563521545043926
-0.02433802782782065
-0.06138417820276625
0.021358517312390454
-0.09511739867686085
-0.17563538692212732
0.05454933173947847
-0.0046355014345007845
-0.024252451255624526
0.025180732670363325
0.037397025532606314
-0.06624127012129598
0.034967587863098455
0.02674953991640927
0.02963809132144854
-0.06997485581324593
0.02162047646659865
-0.023929297511354163
0.010109450774755368
-0.0009725603776378068
0.05043247002836942
-0.02128726255498828
0.04294428532420311
-0.02075750314082648
-0.2842924815265657
0.033544646344959905
-0.05485009170061996
-0.017323234906625965
0.004985169265987102
-0.05254700973371
-0.003211651273158228
0.00928081310694925
-0.03948692679183272
0.0804773720278538
-0.04268973395910986
-0.01801136595797185
-0.09850362836869449
-0.11164769297214155
-0.03139057304462103
-0.04225535218858693
-0.06215641249703766
-0.1046147907181276
-0.004409044672029375
0.023891567492615128
0.02371765624531201
0.023237493646592756
0.009587677509983534
-0.007277752599591407
0.035530138792944296
-0.00043150262865453566
-0.07626264562407332
0.020863246498814356
-0.003170669713972212
0.0141209425416303
0.07954743638011211
0.08305790700806091
-0.015157860798740293
0.0784188886856163
-0.14050917434156257
0.11648825756085182
0.06539113387335273
-0.1745858462803441
0.015086381285122632
0.008752544561365084
-0.09922763820152608
-0.11087374339070903
-0.08281145565851128
-0.06087585481565806
-0.017315774319635095
-0.013396500730561799
0.015748378644909605
-0.10194097102334035
-0.10225583674528889
-0.008568453974318338
0.10287851680232672
0.05521820122971156
-0.008134726990240577
0.022042503679698604
-0.014492409558885814
-0.032672564929468455
-0.006859409056756668
-0.058153731281932776
0.016028959474723183
-0.015726364880672
-0.044560683086198885
-0.03689594262623346
0.05082338906723519
-0.027214086993085262
0.026019842213981043
-0.031235572358820993
-0.011192880344286152
-0.3876813960769627
0.04755684704322979
-0.007728801876711833
-0.007982263286961364
0.07336715678825194
0.038866812132409584
0.017284841991805126
-0.0303548001949965
-0.24097093341770762
-0.003820047857142298
0.02455466863649108
0.008737783268000465
0.050109979096333565
-0.09335015501814632
0.14411753078801004
0.02276543151278997
-0.005021165588166596
0.020036623076641745
0.1527891885172251
-0.020977218332358365
0.06167303297253642
-0.015970676777611437
0.014945748415653748
-0.01535849532597236
-0.017683893514450023
-0.06320075271301184
-0.034238795280795015
-0.015678374307766436
0.05446759300098083
-0.07029710353728365
-0.07038961613253836
0.10582589717211703
-0.07100089584485639
-0.022054801731474546
-0.011726917812956933
-0.007922977286738872
-0.03478620449351733
-0.02420357753444642
-0.08909144234038015
-0.02114251475406956
-7.88843206124364e-06
-0.030067104832848086
0.021583678320103706
0.007392586695097486
0.0212530576369916
-0.050152750237086735
-0.01752090841330096
0.003314785076824642
0.0671630300515091
0.08267524123421276
-0.11511490722149023
0.012503105338039031
0.0027616183411964456
0.1359901053332992
0.07698593393839574
0.2716751447547494
-0.04667771704029328
0.09012840959831073
-0.008486515883149175
0.08359902010779968
-0.07173277803958844
0.01983154846850386
0.030076830478069937
0.0019283423338648355
0.15914149596559782
0.046099334386595636
-0.05948099706717886
-0.00164332632024283
-0.023302300717543183
-0.002518531433191243
-0.016731524183236934
-0.19367850520991617
-0.1535500797103774
-0.057634305914775856
-0.02428903997816424
-0.014394288132777515
0.05541361649752986
0.14564444655000072
0.04067077699211766
-0.007003366990776133
0.0031116177942864106
0.15287597020673818
0.052978628326043685
0.04531009397675294
-0.05454743557500149
0.03673330637137416
0.30672684025750224
0.020938259190712814
-0.005572068548525409
0.14808828005911268
0.0029546357120501148
-0.019058364399016245
-0.08058354741662709
-0.15678396119101554
-0.015345061475792517
0.15360918894483122
0.0012677554537745806
0.012298618083533412
-0.17158028820618396
-0.17280032129518536
-0.06818597196058677
-0.11618898800713799
-0.031618943936332744
0.09909604405421123
-0.021626375205557262
-0.04158974294228518
-0.06401099344458495
-0.03331103443882231
-0.06233706506066621
-0.08285338195189007
-0.030913171204881212
-0.017686543339384242
0.004440534690767711
-0.06308796359256796
0.046285683379232494
-0.03602795992157751
-0.013881149158604235
0.022624767748618428
0.0652524245550552
0.04749295308548956
-0.003652113198693417
0.0630676229289631
0.05643069698056362
0.04072463427890472
-0.030056756571719415
-0.07314318453951012
0.005477952976939086
0.18906936784614128
0.14055665659963898
0.015158607365608482
0.14562025904764578
0.041921386146466844
0.0460536836493557
-0.039092648977097785
0.004312618729770704
-0.06565726402587416
0.20210149505239655
0.14265111724127094
0.10422148255497755
0.002744924235664515
0.10205789905026501
-0.010426428215607166
0.024432386248426845
0.009298585648487689
-0.14799326046646263
-0.09498445007071965
-0.044165243897769005
0.18507974554264311
0.1420390678927692
0.009708538762953335
0.026786129489547495
-0.26392786667240187
-0.044530602502973145
-0.026712937859619753
-0.023116220875790187
-0.006538027578400768
-0.008490867185435843
0.1128836367984615
-0.46199274653484224
0.2039725719105292
-0.10545840203019416
-0.12365452518325318
0.022131997666828426
0.11295754973847703
-0.09935411458617863
-0.04018052615141651
0.00798136004122579
-0.06869636479885559
0.07757469154351776
-0.024238087894373008
0.004375218341234284
-0.0011477738787442086
0.017112118655043373
